{"weights": [0.07583202275628464, -0.0005628452700903591, 0.0404226751128427, 0.07792634540626875, -0.00800467430701643, 0.036925042192118396, -0.07996424723817391, 0.027064284720363208, 0.061505217483496466, 0.08444176984290111, 0.08127204907935065, -0.07941466814982659, -0.07727952485633505, 0.05230036839157945, -0.011515565911315612, -0.07218426602390488, 0.051942213508219676, 0.04945588101253809, 0.07729200905214859, -0.060049937550317116, 0.09891277744677895, 0.04810766531062105, -0.041018776752066444, 0.013266613819873416, -0.08435366985999496, 0.07683141207256364, -0.06654032524464044, 0.038678671286535515, -0.05243588448303269, 0.023913586768817274, 0.05273568744977761, 0.02108400984736425, 0.06617520994909906, 0.01914993919858546, 0.08905013491950153, -0.013702631320626837, -0.0529142812154437, 0.010301682566303486, 0.01694456709559563, -0.03182243835066963, 0.004753037327240176, -0.07041984725997172, -0.07838887169787238, -0.017582381976638518, 0.07894836277520148, 0.0068311299274640466, -0.05210439611361304, 0.01576838672836219, -0.02330402098923768, 0.09671764739089299, -0.033783620224019026, -0.05498751047993136, 0.07345300493134757, 0.05537835794700416, 0.07324166671506666, -0.014708043438339022, 0.03559214568305716, -0.0050864698254885765, 0.09841941041508487, -0.06548823618178684, -0.007373426783939281, 0.09868334918244027, 0.07469808230208641, 0.056832155260428056, -0.07676033048627819, -0.05583338542769156, -0.08118379487195931, -0.016887103174243575, 0.08335586976425856, -0.072548079398306, -0.08681416531025096, -0.10182625650577533, -0.09064157127581716, -0.07523301194267196, -0.09808854963113234, -0.04066372192184091, 0.034218977026166664, -0.059010254316619645, 0.02887694980718309, 0.07049590085221757, 0.027193768452344533, -0.054552101385717956, -0.029973817213385018, -0.06011434810121477, 0.06666588342546304, -0.037038318423319755, 0.05703284419594443, -0.05677152946495128, 0.08281131263339156, -0.06234281611269091, 0.0746073818318309, -0.07805619587002738, -0.07780612277903425, -0.08367786558215688, -0.020508450025385865, 0.06350636125433091, 0.04153585876949508, 0.04322968204407138, 0.020046346028363405, -0.00866099008599332, -0.05107595841350727, 0.028551038485400203, 0.07291115039876737, 0.07739319100117993, 0.07287514937779742, -0.08025746714038583, -0.012942996623051626, 0.05118733050506399, 0.009134781383105613, -0.03778515240922329, -0.048118487107411116, 0.050886348584236324, 0.08652601669678045, -0.058982514828621074, 0.09194311710351916, 0.055151107784055096, 0.082744393870178, 0.018866854784189264, -0.004145235968135823, 0.07301493074969519, -0.019943957408769773, -0.098584191582801, 0.07338607865032841, 0.015922719431356976, -0.09770847221094987, -0.023218810410859526, -0.1212631037244995, -0.0660061533064729, -0.134110285075676, -0.11135126268104299, 0.007309358079676723, 0.03387150097928708, -0.03794188792507013, -0.07156539216248768, -0.08076995905208843, 0.0026545465182432125, 0.024641280086027294, 0.07448653139971548, 0.06729514164847737, -0.06040039530668265, 0.05880921344692627, -0.04224439606508745, 0.05574220321045957, 0.008220685054603329, 0.039247583657742516, 0.04463585216060471, 0.0049016566021297435, 0.0860528028591283, -0.03011718208432606, -0.03473652714656708, -0.05329124390620099, -0.1254154492095067, -0.14958843682714726, -0.10531009538363686, -0.13231828494736503, -0.13151566020110936, -0.1662439092367149, -0.006133165407347533, -0.0232497855689731, -0.14474088236581184, -0.00639602652127056, 0.043013129278251946, -0.11087722650980036, -0.046927202080035965, -0.02820440176852454, -0.0896571806481826, 0.0889469200727535, -0.08974567772041957, 0.001398916366240635, -0.09482592808213403, -0.0023482475322877615, -0.0213047666381692, 0.09170787271080405, 0.007441782574054227, 0.03183102916617838, -0.0048112969872606106, 0.02112033851674002, -0.057921608608731384, -0.07737145304139993, -0.07902679971426169, -0.13642511446433767, -0.08162462069312014, -0.19114730513460942, -0.10167834314441755, -0.043205116273833784, -0.10774228875615892, -0.17399590498701953, 0.01746326771932842, -0.12309190164237391, -0.13834396686676712, 0.055183752878688506, 0.005280268415997156, 0.07898835691310875, 0.03415441446472605, 0.0019118796920624443, 0.005242042149323375, 0.030018228977441806, 0.05224358189463133, 0.09625943560958888, -0.024785965716399627, 0.09897680366428539, -0.048848169139271785, 0.07469795575576935, 0.11299817506570825, 0.09872277369367378, -0.06740342365907655, 0.07722959943665554, -0.016221922118806537, 0.010719156703100518, -0.13496738565148497, 0.006330992366724061, -0.02928164395195325, -0.06386800154037449, -0.048925398146277506, -0.04383858806203759, -0.06638085042195899, 0.06077307725274718, -0.06094892465259175, -0.014226030415321637, -0.052848672636165064, 0.01874196802386239, 0.07514777239225376, 0.041828794634168456, -0.0931521494679364, -0.02077563123961977, 0.028359556672610312, -0.04209590023473725, -0.020862957987577164, 0.08106722146562055, 0.015654787530929803, 0.029290993609126768, 0.020459833211278537, 0.055918046691071616, 0.12146781835899782, 0.022651367483133986, 0.022203621841923857, -0.046309392297178835, -0.03464745522922872, 0.13469882609558806, 0.0334950058224908, 0.04056258603097661, 0.06202004583271332, 0.06244514285148914, -0.021301507146273217, 0.019638470738575727, 0.05803273290364781, -0.011130181102708974, -0.05584224323691231, -0.05509780411284119, 0.05868253265975264, 0.05719016056383991, 0.09816818708300383, -0.051461901748388966, -0.046234333343340706, 0.06222679765808987, 0.030668016861169375, 0.04774955489857807, -0.045963170739263266, 0.018152067145678165, 0.12926502451838287, 0.127118513163567, 0.10109526308180465, 0.1422981350328105, 0.15312700484737718, 0.14325632754240936, 0.01377250232774953, 0.051999802108702115, 0.02909742316209315, 0.13127204334331907, 0.14473007967533622, 0.09430727831541234, -0.013165828146704008, 0.0018772490644554454, -0.02112131554044688, -0.03933044056832398, 0.015115983188512759, -0.031119954974199438, -0.02391272857310852, -0.03551396603320037, 0.05951748314324846, 0.08840106781106458, -0.06693426133398997, 0.04991182419234906, -0.002989866844958725, 0.07971567842945511, 0.07359131717887257, -0.0016509221486064028, 0.048116164278847795, 0.022341802560558528, 0.09022541354520355, 0.05526372517653585, 0.10922517759646966, 0.07512560447448301, -0.022943982967840025, -0.013195060394595275, -0.041072474833368955, 0.02550085596779529, 0.020224437987801026, 0.04890822462766456, 0.10431586120745459, 0.08742615968563698, -0.03735213822084269, -0.0473760824580171, 0.07002021284716402, 0.02153855224629071, -0.0211474978261085, -0.04926492580036496, 0.06809811651040544, -0.018847990630953507, 0.09342344739830581, -0.008610890229151258, -0.033692759143116556, -0.024677487779239476, 0.036833563698747344, 0.09096485622947113, 0.017847701416164923, -0.06737118307852945, -0.030975426170028856, -0.09259846790293569, 0.01439935019548838, 0.020962093257775996, 0.02997799051803741, -0.04352417498157501, 0.018586145533367827, 0.04061894673886338, 0.13844305182296054, 0.016915437532267354, 0.08808532840575443, -0.019502221020339695, -0.009778062864880034, -0.07635432557122425, 0.06437135433287276, -0.04802336195661948, -0.07130677434219673, 0.005923991216949591, 0.09669764580470266, 0.0060123558326362625, -0.022657068497056, 0.06566842431874345, -0.012392653354327677, 0.09621159164675491, 0.022949543553843686, -0.017791478159672455, -0.05486080374513201, -0.11017002951494548, -0.13455071829632206, -0.10281244856733425, -0.09299817806411347, -0.14174353703044726, -0.071200114325079, -0.09932631211138153, -0.15289254996170853, -0.024323570726641996, 0.047159437790645166, -0.007262923125248094, -0.011394227854920376, 0.11419109707231802, -0.012033018652647222, 0.001690412985921579, -0.11104984474174971, 0.000784627311895437, 0.06399520917499046, -0.08091759131301055, 0.05263038567120004, 0.05062215435324521, 0.010617439508382861, -0.09328999184686496, 0.001093846414972581, 0.10100445147381742, 0.016798261857709485, -0.07204327245279973, -0.051211744148982094, 0.036223180393776554, -0.038296921966889615, -0.1710438272235658, -0.20719879134382013, -0.04879792992109282, -0.23720645142930336, -0.17625468105386688, -0.15589818601559566, -0.09879407520667521, 0.06547378660032471, 0.03748437990447562, 0.022311394165123805, 0.0909714453011554, -0.07395141909316902, -0.11175157969879826, -0.07897039274432686, -0.07730258283382543, -0.09148091638325653, -0.0265033845708707, -0.016759596308706895, 0.06313206243535499, 0.08805360318406141, 0.06250943772072023, -0.0619283404934056, 0.018686091294279356, 0.0661659493981363, 0.011834318870835954, -0.0024838913713742766, -0.09920566179936292, -0.19164688193599996, -0.15092156263726395, -0.06956871256659623, -0.2125100529876407, -0.09941368166232811, -0.21335475217723482, -0.04784240909023248, 0.034102607548195094, 0.022236682431761107, 0.0876332552891869, 0.045620984707548634, -0.09378872116976364, -0.10074842709769476, -0.026403681273678505, 0.010090377021611965, -0.09779076300348552, 0.04578036905156196, -0.04215313311008146, 0.07924979269619811, -0.0643207080338333, 0.04508081624033303, -0.07655365026929631, -0.07353656970915244, 0.07664819222736802, -0.07026437484693387, -0.1076167662021344, -0.12505685968173735, -0.08035543845185818, -0.09569661635621828, -0.19260878468079604, -0.2141320551383851, -0.11010895609692078, -0.274194075634224, -0.1882922817857839, -0.0165780342586597, 0.0008258499243999904, -0.022921257695054962, -0.010791697920721783, 0.00047905713304625204, -0.023801815681069663, 0.004632308897186162, 0.0669275733511675, 0.05657027485303834, -0.04345691944690175, 0.07460841413271205, 0.06330848771078622, -0.027653183585735576, -0.009120582737850172, -0.06377924795922907, 0.05084525157051446, -0.04554625176772056, 0.06159013641735945, -0.08036830543254349, 0.053024671715161065, -0.1268303798062244, -0.1852453988974158, -0.045409175183880005, -0.07324277649477316, -0.053433115898817385, -0.13300222723235, -0.16762869521870122, -0.1268299475953233, 0.012591400449497425, -0.010971577690561405, -0.03527713161529064, 0.06604929443706212, -0.06731606246693514, -0.09928514812196614, -0.03682741114383967, 0.04384234317040582, 0.07610600109682233, 0.006447363938676749, -0.005053181463118573, 0.015274626681058659, -0.07604119048517101, -0.03544641319436062, -0.04683450298312515, 0.097031689365045, 0.027180110830352742, 0.04930290770096819, 0.048110798964198016, -0.1304560692628629, -0.08440126059387608, -0.0875951002364083, -0.0737896201091171, -0.011816238474296727, -0.14712607043953554, -0.0849320992982555, -0.08559264012180115, 0.09123707726906918, 0.04021402794394108, 0.11240709757707844, 0.07701228274372926, 0.016265029043613974, 0.005740214782621064, 0.016734208594021742, -0.0864100188315975, -0.04078005973135333, -0.03493197756115253, -0.028680958063465507, -0.03497937445484704, 0.03161770047477718, 0.07877544285197814, -0.05622906357208386, -0.09573345008337189, 0.013397298779515905, -0.013223690784180765, -0.03461853535724806, 0.023745042121772135, -0.049000005286623995, -0.012730286191502606, 0.015034829113568994, -0.011240395028531561, -0.06444193065729771, -0.16218624886338262, -0.04281774779930528, -0.06389924919563297, -0.011932837018094661, 0.004418965634060157, -0.040695624587366586, 0.01546923310723032, -0.08920398182754696, 0.009216603649866973, 0.027523107207972852, 0.01264456434448656, 0.015351608403089705, -0.11378135968463667, -0.08345884885638877, -0.054082908967381764, 0.05616457563909804, -0.02065980023303451, 0.0851864199763239, 0.04223011541937721, 0.06430608141533228, 0.022823720566025645, -0.036329733326842716, 0.053769265357451024, -0.12279178240068171, 0.01401519455764227, -0.01290386943357885, -0.18909287487703275, -0.03187932810748532, -0.1187961713044004, -0.053033336163908845, 0.073124922027991, 0.10897315390703421, -0.02116226215695873, -0.04609019964787712, -0.11272014436096152, -0.016685315966874815, -0.04467974210725412, -0.09368907396707934, -0.12848668500407562, -0.04809499885493311, -0.01796328056034523, 0.05852578897512129, 0.06850083327705198, 0.0764515212359168, -0.013101031565737517, -0.00532782271254921, -0.03876263573917099, 0.0876118781264509, 0.0385950897677947, 0.06360507747424768, -0.0017905879197070641, -0.022879771292376328, -0.059505261016687044, -0.028940923018053805, -0.03805894990517262, -0.08851045590110848, 0.0424802916766429, -0.018444875621747413, 0.06204047851118777, 0.012458642941773661, -0.03837389073759703, 0.021091677444695613, 0.008609320907009062, -0.008048689929922847, -0.0731206355339727, -0.10218376860373261, -0.11956438434399211, -0.03373781122140287, -0.05877644256957353, -0.08246592057844712, -0.030928071214181792, 0.07961896206823621, -0.09254904766584025, 0.09536023551639392, 0.004489930232993426, 0.003997562741530757, -0.06062755720725142, -0.05881304335679994, -0.10666406611943385, -0.09362621886669702, -0.14649164267603967, -0.11571910463747119, -0.1422677011245323, -0.012524577158379064, -0.014602813495485329, 0.08428688609632062, -0.1084093810453113, -0.0879630898067997, -0.11612201253513797, 0.04950842748309639, -0.022983768674719064, -0.1028420330944105, -0.03475412565040661, 0.013205312050224937, 0.07217940336301516, 0.07196645785786174, -0.013375757291532104, 0.027002861852470292, -0.0248557854460068, 0.029378538015210794, 0.06013167721310153, -0.017469435958077845, 0.05645237388597937, -0.045185063845897926, 0.002590017302910348, -0.032139448535869364, -0.04090055801900479, -0.051657628168826186, 0.052847657829017444, -0.045634334026240946, 0.00999935119408028, -0.010051068093375796, -0.059373007550760123, -0.08574197394608221, -0.00981058704758311, 0.0401951145683096, -0.05757570342623916, -0.08057444311303903, -0.057509680960963795, -0.09353674567266651, -0.08094036600100549, 0.02026318786868193, 0.0512270653923494, -0.06943588606295382, -0.0021545284640195534, -0.007236204957358631, -0.04474563005711046, 0.03114811102622521, -0.07078397790608129, 0.008764075481165048, 0.03150666608211755, 0.02916818933034454, 0.07673932925117309, 0.07755803372747334, 0.058610680595457605, -0.08755748890005959, -0.044024599046960135, -0.023981898430068115, 0.0052990803514393146, 0.001845640823888795, 0.0536795148437594, -0.006524892013026546, -0.1087320245972754, 0.035398469570362655, 0.09708609295568989, -0.08222057618283307, -0.0020838919797883802, -0.019648571563024707, 0.0006044590004671976, -0.08567774365318326, -0.04794640618559748, -0.006527665483245682, 0.04570397242760919, -0.07978591328386789, 0.031082356112033683, -0.06072479550513977, 0.0014599733023607647, -0.054104693389374826, -0.0946366884980052, 0.08023301308262196, -0.057958344635379334, -0.06122887757716056, -0.07659246258073187, 0.09652610091246684, 0.037504539399949154, 0.12432836208238966, -0.04368384237136386, 0.11991545071671515, -0.026860572212093484, 0.11610285439496448, 0.09480861364676, 0.05551323950036323, -0.04640446658441817, -0.07358875930881617, 0.0027951166116671373, 0.025282339511891416, 0.03463321964855846, -0.05615362904148355, -0.004131700295970753, -0.04736842684218644, -0.03234359027388708, 0.025469796233392572, 0.0995786729858738, -0.08173020600681696, 0.010523508083492963, -0.025798675439441962, -0.003860802732873772, 0.08546629278828735, -0.09361831167349222, -0.07884377125132426, 0.0333866063476811, -0.029714061137066906, 0.0323684003257086, 0.01611432218010471, 0.009940433320710887, 0.0146177707985641, 0.06857365705529749, 0.12283763089683543, 0.10654072074493699, 0.05652297424315047, 0.02323599107008369, 0.04550325519361374, -0.0384394025164495, -0.04923425855124775, 0.04360672571754906, -0.09769175244312185, -0.03236877506021437, 0.04661432440069163, 0.04197030175977852, -0.092066723074231, -0.09141675336255944, -0.008534251249863872, -0.03087493282719267, -0.08029535782426081, 0.06650610522252953, 0.01715775131230439, -0.09305106423591641, 0.06495722439555476, -0.09426712860178682, 0.03110239136606004, 0.05670202579265773, 0.04101403707893704, 0.12903833955145688, 0.002336930275595973, 0.040153964576081363, 0.1269546044279162, 0.04899726647157736, -0.023229055392339878, 0.03779030921237066, 0.10329814377788597, -0.011243983080690629, 0.09254932920407748, -0.0035123911266371657, -0.015356149498923331, -0.05512105413169432, -0.007121234300608985, -0.03530686396324466, 0.09810723088368944, -0.052136801788309664, 0.050503740166012084, -0.03219272405306166, 0.04888547776401894, -0.09237929789664204, -0.0744051180224829, 0.09559277672370178, 0.0252168252167429, -0.028842569373796752, 0.08144186174311499, -0.07103817193716552, -0.07888087373849634, 0.027333074547555947, 0.08878931246896371, -0.01250709984042791, 0.05201201329287836, 0.08862637261216229, 0.03683360681521162, 0.053672343685197514, -0.09307468406607632, 0.016729200188550595, 0.03054870769069046, 0.005987650534925408, 0.013028737999350325, -0.03715639976703387, 0.08567850353383578, 0.017532693050444095, -0.08445348481064739, 0.04086263655620426, 0.036908738114491635, 0.04400552256057372], "bias": -0.061711288852882615}